<?xml version="1.0"?>
<opencv_storage>
<cascade>
  <stageType>BOOST</stageType>
  <featureType>LBP</featureType>
  <height>48</height>
  <width>48</width>
  <stageParams>
    <boostType>GAB</boostType>
    <minHitRate>9.9500000476837158e-01</minHitRate>
    <maxFalseAlarm>5.0000000000000000e-01</maxFalseAlarm>
    <weightTrimRate>9.4999999999999996e-01</weightTrimRate>
    <maxDepth>1</maxDepth>
    <maxWeakCount>100</maxWeakCount></stageParams>
  <featureParams>
    <maxCatCount>256</maxCatCount>
    <featSize>1</featSize></featureParams>
  <stageNum>27</stageNum>
  <stages>
    <!-- stage 0 -->
    <_>
      <maxWeakCount>5</maxWeakCount>
      <stageThreshold>-3.7470021843910217e-01</stageThreshold>
      <weakClassifiers>
        <_>
          <internalNodes>
            0 -1 118 -268435457 -286294967 -71693 -41355 -1464926326
            -1977909501 -1209335809 -1048593</internalNodes>
          <leafValues>
            -4.9770641326904297e-01 8.5031849145889282e-01</leafValues></_>
        <_>
          <internalNodes>
            0 -1 117 -65156 -167826210 -67567629 -94666819 -1095006644
            1331093373 254984095 -1612972073</internalNodes>
          <leafValues>
            -5.7903033494949341e-01 6.6021370887756348e-01</leafValues></_>
        <_>
          <internalNodes>
            0 -1 48 1900409077 822411291 1082867927 -1727381500
            1082130596 -1433763710 1115848844 -1087442642</internalNodes>
          <leafValues>
            -5.8345043659210205e-01 6.2670409679412842e-01</leafValues></_>
        <_>
          <internalNodes>
            0 -1 140 -1433721094 -1392282559 538007823 -434138879
            -1609922066 -1710586747 -1975226817 -89462601</internalNodes>
          <leafValues>
            -6.3293063640594482e-01 5.7705980539321899e-01</leafValues></_>
        <_>
          <internalNodes>
            0 -1 53 124345709 -5283889 -71340291 -134258705 805304238
            -1961066889 1476394991 -805315073</internalNodes>
          <leafValues>
            -5.0172740221023560e-01 7.8995364904403687e-01</leafValues></_></weakClassifiers></_>
    <!-- stage 1 -->
    <_>
      <maxWeakCount>5</maxWeakCount>
      <stageThreshold>-8.5851669311523438e-01</stageThreshold>
      <weakClassifiers>
        <_>
          <internalNodes>
            0 -1 127 -449324817 -523156145 16831639 1314594919
            -1874202022 -922680768 1899100927 534739963</internalNodes>
          <leafValues>
            -7.4055826663970947e-01 6.1840629577636719e-01</leafValues></_>
        <_>
          <internalNodes>
            0 -1 57 -719459561 1997905465 -818450673 -1153339597
            1100838490 1551298559 -2048030961 -614991973</internalNodes>
          <leafValues>
            -4.9813869595527649e-01 7.8707700967788696e-01</leafValues></_>
        <_>
          <internalNodes>
            0 -1 143 -2128068438 -1432862648 -1156472318 -1365892408
            -91653618 -94341849 -1073506107 -138450011</internalNodes>
          <leafValues>
            -8.3016473054885864e-01 4.6489915251731873e-01</leafValues></_>
        <_>
          <internalNodes>
            0 -1 93 -1850756949 -210764881 -93325961 2135949039
            2147267383 -149029106 -1292372491 -1246757771</internalNodes>
          <leafValues>
            -5.8818626403808594e-01 6.8671607971191406e-01</leafValues></_>
        <_>
          <internalNodes>
            0 -1 130 -209498145 -653179946 1069067 268505427 1778942040
            -1989640062 1946951275 2033947039</internalNodes>
          <leafValues>
            -7.4111026525497437e-01 5.0346744060516357e-01</leafValues></_></weakClassifiers></_>
    <!-- stage 2 -->
    <_>
      <maxWeakCount>5</maxWeakCount>
      <stageThreshold>-7.0315456390380859e-01</stageThreshold>
      <weakClassifiers>
        <_>
          <internalNodes>
            0 -1 129 -272671921 -285325713 -83898633 -16814081
            -1346705869 -286265362 -1074790413 -257</internalNodes>
          <leafValues>
            -5.9497207403182983e-01 6.7091834545135498e-01</leafValues></_>
        <_>
          <internalNodes>
            0 -1 84 -142879617 338508903 926841885 489422062 2012726775
            120971263 1711240564 -4203295</internalNodes>
          <leafValues>
            -5.3545337915420532e-01 6.2527835369110107e-01</leafValues></_>
        <_>
          <internalNodes>
            0 -1 120 -576803345 -1017835241 -1782279948 -355200935
            -2146865062 -888438784 868986002 -1410901</internalNodes>
          <leafValues>
            -5.9446305036544800e-01 5.4742062091827393e-01</leafValues></_>
        <_>
          <internalNodes>
            0 -1 115 -48467247 1929463968 -1056685807 226705753
            -1030313557 -1992228689 306341185 1602640909</internalNodes>
          <leafValues>
            -7.1760898828506470e-01 4.5199686288833618e-01</leafValues></_>
        <_>
          <internalNodes>
            0 -1 27 1908586543 -1023115246 1074855947 -2096396159
            268514274 -938999807 -1071225949 -1584561557</internalNodes>
          <leafValues>
            -5.6327253580093384e-01 5.9641242027282715e-01</leafValues></_></weakClassifiers></_>
    <!-- stage 3 -->
    <_>
      <maxWeakCount>5</maxWeakCount>
      <stageThreshold>-6.1047869920730591e-01</stageThreshold>
      <weakClassifiers>
        <_>
          <internalNodes>
            0 -1 136 -9348609 -341358873 -1056750897 -570144756
            -1282543048 -1182760943 530578195 1065566079</internalNodes>
          <leafValues>
            -7.0537263154983521e-01 5.4929578304290771e-01</leafValues></_>
        <_>
          <internalNodes>
            0 -1 67 -466231307 -176816327 -268439705 -16400585
            -723650849 -704790657 -813920564 -135811349</internalNodes>
          <leafValues>
            -4.6536552906036377e-01 7.6652407646179199e-01</leafValues></_>
        <_>
          <internalNodes>
            0 -1 132 -1155918345 1529970871 1610680527 355576284
            -334490677 524386317 -1744753873 2131640632</internalNodes>
          <leafValues>
            -5.8178853988647461e-01 5.3106647729873657e-01</leafValues></_>
        <_>
          <internalNodes>
            0 -1 107 -620904489 -537035000 -16795911 -201630215
            -1466304529 -806764795 -1628700705 -67178666</internalNodes>
          <leafValues>
            -4.5104724168777466e-01 7.7437072992324829e-01</leafValues></_>
        <_>
          <internalNodes>
            0 -1 81 451415935 -577617920 -1735173123 2029804499
            947945333 -82786039 1315736358 375164936</internalNodes>
          <leafValues>
            -6.5360456705093384e-01 4.8024019598960876e-01</leafValues></_></weakClassifiers></_>
    <!-- stage 4 -->
    <_>
      <maxWeakCount>6</maxWeakCount>
      <stageThreshold>-1.0137890577316284e+00</stageThreshold>
      <weakClassifiers>
        <_>
          <internalNodes>
            0 -1 54 -732827681 -216679661 -460850331 2131835691
            1152712123 -704840717 -1914852387 -3176725</internalNodes>
          <leafValues>
            -4.0723982453346252e-01 7.4675327539443970e-01</leafValues></_>
        <_>
          <internalNodes>
            0 -1 138 -1442127486 -388874157 -1862065849 -649903026
            -2104708470 -620648444 -2012953374 -238822443</internalNodes>
          <leafValues>
            -6.3155710697174072e-01 4.8374921083450317e-01</leafValues></_>
        <_>
          <internalNodes>
            0 -1 2 -1242585345 -202375171 721158969 2104868607
            2097151739 -1076985860 1979704875 1874804730</internalNodes>
          <leafValues>
            -4.1771772503852844e-01 7.0897090435028076e-01</leafValues></_>
        <_>
          <internalNodes>
            0 -1 146 -1089283077 -243154918 -2130575243 -11939690
            -939499432 687865866 302013126 1560752403</internalNodes>
          <leafValues>
            -6.5253973007202148e-01 5.0426596403121948e-01</leafValues></_>
        <_>
          <internalNodes>
            0 -1 41 -470502875 1895165483 -1459712209 -1342198102
            -1115838483 -1510490115 -994730243 -991187093</internalNodes>
          <leafValues>
            -4.9784800410270691e-01 6.2395060062408447e-01</leafValues></_>
        <_>
          <internalNodes>
            0 -1 119 -709670665 -258801216 545427475 30966033
            -1065301350 2015625248 -2147280141 2110308889</internalNodes>
          <leafValues>
            -6.4888161420822144e-01 4.6929278969764709e-01</leafValues></_></weakClassifiers></_>
    <!-- stage 5 -->
    <_>
      <maxWeakCount>6</maxWeakCount>
      <stageThreshold>-9.5188581943511963e-01</stageThreshold>
      <weakClassifiers>
        <_>
          <internalNodes>
            0 -1 72 -579993637 -14290171 -830513347 -682524910
            -1932748065 -587202585 -2068936753 -814743877</internalNodes>
          <leafValues>
            -3.9186295866966248e-01 8.2332158088684082e-01</leafValues></_>
        <_>
          <internalNodes>
            0 -1 105 -611583762 -746487802 1343230105 1967243763
            270973112 419430912 1090576617 890233193</internalNodes>
          <leafValues>
            -5.7558017969131470e-01 5.2363842725753784e-01</leafValues></_>
        <_>
          <internalNodes>
            0 -1 9 -788409894 -784252790 -1602185961 1596035593
            -234820984 -1056440320 -2096576374 1678188614</internalNodes>
          <leafValues>
            -5.3481096029281616e-01 5.6939709186553955e-01</leafValues></_>
        <_>
          <internalNodes>
            0 -1 19 -773850984 -653819721 1073867009 -786579452 35464
            8620042 -922629990 469228056</internalNodes>
          <leafValues>
            -5.4524624347686768e-01 5.6275403499603271e-01</leafValues></_>
        <_>
          <internalNodes>
            0 -1 148 -270084312 -38846868 1006335802 -102039574
            603963323 -555515913 -172071 -424022112</internalNodes>
          <leafValues>
            -5.3933036327362061e-01 5.9595626592636108e-01</leafValues></_>
        <_>
          <internalNodes>
            0 -1 89 -246165432 839942656 289423699 497090690 -536313652
            1359036808 436531452 -1457694421</internalNodes>
          <leafValues>
            -5.7227396965026855e-01 5.6615591049194336e-01</leafValues></_></weakClassifiers></_>
    <!-- stage 6 -->
    <_>
      <maxWeakCount>5</maxWeakCount>
      <stageThreshold>-6.1951088905334473e-01</stageThreshold>
      <weakClassifiers>
        <_>
          <internalNodes>
            0 -1 100 -8388609 1539856702 -151044261 -85041927
            -1884325973 205323551 -1107886097 -33685505</internalNodes>
          <leafValues>
            -4.5885285735130310e-01 6.7048710584640503e-01</leafValues></_>
        <_>
          <internalNodes>
            0 -1 71 -864231665 -143542505 -286494929 -150634715
            1693248751 -17465369 -856838930 -671830469</internalNodes>
          <leafValues>
            -4.7058394551277161e-01 5.9767079353332520e-01</leafValues></_>
        <_>
          <internalNodes>
            0 -1 104 -224911198 -2004811769 -801041763 -1324660084
            -1476337204 1476888707 -1868197743 -201436101</internalNodes>
          <leafValues>
            -5.7748991250991821e-01 4.5138546824455261e-01</leafValues></_>
        <_>
          <internalNodes>
            0 -1 126 -1592571429 -805125632 286409475 1359004560
            1258481721 -909443040 -2141028165 -1691169611</internalNodes>
          <leafValues>
            -5.3111875057220459e-01 4.9486979842185974e-01</leafValues></_>
        <_>
          <internalNodes>
            0 -1 125 -816066058 -632716333 5472437 198328792 -1609039142
            -301952988 -2138844786 553710094</internalNodes>
          <leafValues>
            -6.3632935285568237e-01 4.4830098748207092e-01</leafValues></_></weakClassifiers></_>
    <!-- stage 7 -->
    <_>
      <maxWeakCount>5</maxWeakCount>
      <stageThreshold>-6.4960211515426636e-01</stageThreshold>
      <weakClassifiers>
        <_>
          <internalNodes>
            0 -1 140 -2053959672 -502479384 -771526439 -259964782
            -660566000 -427816550 -526220857 -609386293</internalNodes>
          <leafValues>
            -6.9024854898452759e-01 4.7185260057449341e-01</leafValues></_>
        <_>
          <internalNodes>
            0 -1 73 -216927969 893702469 1469076602 2098280793
            -406443827 935461586 -223289157 -1279667014</internalNodes>
          <leafValues>
            -5.0303184986114502e-01 5.6012058258056641e-01</leafValues></_>
        <_>
          <internalNodes>
            0 -1 63 1054701465 -1075220643 1296018481 523049845
            -1224755492 -151683081 1870488987 -1644746757</internalNodes>
          <leafValues>
            -4.2961916327476501e-01 6.1943060159683228e-01</leafValues></_>
        <_>
          <internalNodes>
            0 -1 16 -847719457 -1712228355 -411140493 -755828737
            1585235687 123140063 653762010 1919387313</internalNodes>
          <leafValues>
            -4.8615327477455139e-01 5.8541798591613770e-01</leafValues></_>
        <_>
          <internalNodes>
            0 -1 87 -153815084 874094790 1661483221 122882135 1674226598
            -324534016 1740876470 365238630</internalNodes>
          <leafValues>
            -6.7527300119400024e-01 4.4299271702766418e-01</leafValues></_></weakClassifiers></_>
    <!-- stage 8 -->
    <_>
      <maxWeakCount>6</maxWeakCount>
      <stageThreshold>-6.4267718791961670e-01</stageThreshold>
      <weakClassifiers>
        <_>
          <internalNodes>
            0 -1 37 -814355521 -12189917 -1351635011 -83771615
            -991433509 -139001993 -855733042 -1198425</internalNodes>
          <leafValues>
            -3.9110070466995239e-01 6.7182660102844238e-01</leafValues></_>
        <_>
          <internalNodes>
            0 -1 120 -1060063758 1677987928 419451101 -65267632
            -1992120152 -937902067 -1467967335 -85474919</internalNodes>
          <leafValues>
            -5.2081912755966187e-01 5.1121079921722412e-01</leafValues></_>
        <_>
          <internalNodes>
            0 -1 26 1626326443 -436752849 -1115717953 1861201839
            -717412976 -1758584922 -851522370 -441160830</internalNodes>
          <leafValues>
            -4.7008636593818665e-01 5.2276152372360229e-01</leafValues></_>
        <_>
          <internalNodes>
            0 -1 3 -205521963 -1210077571 -1074069649 -1377855321
            -143655993 -421013155 -139606370 -781102011</internalNodes>
          <leafValues>
            -4.2212238907814026e-01 6.0456514358520508e-01</leafValues></_>
        <_>
          <internalNodes>
            0 -1 64 -4626253 -1078042630 -1291899395 871312893
            -409486188 -8421537 -547422529 -111206405</internalNodes>
          <leafValues>
            -4.1033014655113220e-01 6.7581093311309814e-01</leafValues></_>
        <_>
          <internalNodes>
            0 -1 98 -290455561 -42010655 -1754317023 1697937334
            -851123154 -9994267 796732703 -1289001065</internalNodes>
          <leafValues>
            -4.4775384664535522e-01 6.3552910089492798e-01</leafValues></_></weakClassifiers></_>
    <!-- stage 9 -->
    <_>
      <maxWeakCount>7</maxWeakCount>
      <stageThreshold>-6.0028409957885742e-01</stageThreshold>
      <weakClassifiers>
        <_>
          <internalNodes>
            0 -1 86 -8388641 -6717889 -151060550 -67143685 -1218445401
            1096056615 -1330380993 -671285281</internalNodes>
          <leafValues>
            -4.6205058693885803e-01 5.9679573774337769e-01</leafValues></_>
        <_>
          <internalNodes>
            0 -1 103 1257431799 1907933166 -1074086792 1005252574
            1081996789 -537657363 1711239416 -273683609</internalNodes>
          <leafValues>
            -4.2644843459129333e-01 6.1456251144409180e-01</leafValues></_>
        <_>
          <internalNodes>
            0 -1 35 1442823989 333819707 -1912762386 -1426083921
            1425528727 254545704 -2131963937 -855658806</internalNodes>
          <leafValues>
            -4.9553492665290833e-01 5.3592610359191895e-01</leafValues></_>
        <_>
          <internalNodes>
            0 -1 116 22498554 -977043320 43230 -1928343112 -503152418
            -1170210814 847938471 2030019733</internalNodes>
          <leafValues>
            -6.8760854005813599e-01 3.7567079067230225e-01</leafValues></_>
        <_>
          <internalNodes>
            0 -1 163 -124450239 1643610501 1090634146 1347608763
            -251408057 1217635020 55509664 -387765421</internalNodes>
          <leafValues>
            -5.5824548006057739e-01 4.8572385311126709e-01</leafValues></_>
        <_>
          <internalNodes>
            0 -1 92 817923037 -804230191 270795430 544211056 145527631
            -625899356 298123688 -1427482346</internalNodes>
          <leafValues>
            -5.6026899814605713e-01 5.1788312196731567e-01</leafValues></_>
        <_>
          <internalNodes>
            0 -1 52 14096885 -23396026 386992128 -1584622761 1141465235
            335904768 1514273040 -773113273</internalNodes>
          <leafValues>
            -5.4587846994400024e-01 5.4304313659667969e-01</leafValues></_></weakClassifiers></_>
    <!-- stage 10 -->
    <_>
      <maxWeakCount>6</maxWeakCount>
      <stageThreshold>-1.0817716121673584e+00</stageThreshold>
      <weakClassifiers>
        <_>
          <internalNodes>
            0 -1 46 1704320495 -1178862145 -809517329 -1346650434
            364170711 505995199 -809775674 -626028806</internalNodes>
          <leafValues>
            -4.2153048515319824e-01 5.8299040794372559e-01</leafValues></_>
        <_>
          <internalNodes>
            0 -1 114 -1282958339 -851328418 537133514 1111544834
            -905949652 184647753 56861356 2133520605</internalNodes>
          <leafValues>
            -6.3670092821121216e-01 3.9495056867599487e-01</leafValues></_>
        <_>
          <internalNodes>
            0 -1 17 -270045353 -461602846 -1073868804 -143036426
            -554176641 477845501 -136478724 -84007425</internalNodes>
          <leafValues>
            -4.2387589812278748e-01 6.1204993724822998e-01</leafValues></_>
        <_>
          <internalNodes>
            0 -1 32 1811389334 -980555786 -281117 -1078243922 -130100801
            -1692217924 -148394110 1974372000</internalNodes>
          <leafValues>
            -4.8952409625053406e-01 5.2927750349044800e-01</leafValues></_>
        <_>
          <internalNodes>
            0 -1 142 -802498673 -936486654 285282638 92614916 -875371249
            -1173814784 2053576785 1364424927</internalNodes>
          <leafValues>
            -7.1757739782333374e-01 3.6407849192619324e-01</leafValues></_>
        <_>
          <internalNodes>
            0 -1 150 1035694671 -1242235138 -1411416449 -142606498
            -1207978680 -1509949601 -16794145 1559928143</internalNodes>
          <leafValues>
            -4.9302023649215698e-01 5.6395381689071655e-01</leafValues></_></weakClassifiers></_>
    <!-- stage 11 -->
    <_>
      <maxWeakCount>7</maxWeakCount>
      <stageThreshold>-5.0116050243377686e-01</stageThreshold>
      <weakClassifiers>
        <_>
          <internalNodes>
            0 -1 110 -1191130636 -753594035 310476827 842597618
            -1165426077 2015396416 1934879210 2131478712</internalNodes>
          <leafValues>
            -6.3157892227172852e-01 4.0954273939132690e-01</leafValues></_>
        <_>
          <internalNodes>
            0 -1 85 -327745957 2138355479 1853127935 2131803429
            -319902484 -1082884353 1726917979 -10490625</internalNodes>
          <leafValues>
            -4.4264090061187744e-01 5.6778597831726074e-01</leafValues></_>
        <_>
          <internalNodes>
            0 -1 94 -12872229 -92313637 -17511 -75890882 -1350631741
            -345022506 -311442209 -818373368</internalNodes>
          <leafValues>
            -3.9847373962402344e-01 6.0851383209228516e-01</leafValues></_>
        <_>
          <internalNodes>
            0 -1 139 -246720257 1732546624 -1861039905 1010884880
            -256721904 -2012020352 -373190397 1073472307</internalNodes>
          <leafValues>
            -6.2755948305130005e-01 4.2548322677612305e-01</leafValues></_>
        <_>
          <internalNodes>
            0 -1 160 2013259487 -931813613 1866465269 24219647
            1325318100 -1896349697 -1611270814 1233112475</internalNodes>
          <leafValues>
            -4.0833204984664917e-01 6.3104981184005737e-01</leafValues></_>
        <_>
          <internalNodes>
            0 -1 155 -1068120463 807391537 -788446980 -695074037
            -2138393878 -103604152 -1876704600 -759589349</internalNodes>
          <leafValues>
            -4.8187837004661560e-01 5.8570426702499390e-01</leafValues></_>
        <_>
          <internalNodes>
            0 -1 80 956683166 1963311425 -2130639553 461443152 150999720
            370673696 -922707729 536567007</internalNodes>
          <leafValues>
            -5.6923317909240723e-01 5.3583103418350220e-01</leafValues></_></weakClassifiers></_>
    <!-- stage 12 -->
    <_>
      <maxWeakCount>5</maxWeakCount>
      <stageThreshold>-5.4219484329223633e-01</stageThreshold>
      <weakClassifiers>
        <_>
          <internalNodes>
            0 -1 79 2136407035 855232254 1845411566 1999888381
            2000158142 -1510342657 833951215 -4596243</internalNodes>
          <leafValues>
            -3.6714977025985718e-01 6.0119044780731201e-01</leafValues></_>
        <_>
          <internalNodes>
            0 -1 128 466310911 -545054711 -989849289 471678985
            -1299677140 -897546820 -502789629 152036185</internalNodes>
          <leafValues>
            -6.4311081171035767e-01 3.6157241463661194e-01</leafValues></_>
        <_>
          <internalNodes>
            0 -1 7 -68833289 2071967471 -151093513 2113912830 1165334311
            -1082212537 2010457651 -820510729</internalNodes>
          <leafValues>
            -4.0172472596168518e-01 6.5101081132888794e-01</leafValues></_>
        <_>
          <internalNodes>
            0 -1 45 804033209 2073142916 -2062497257 53582102
            -1299666258 -1868529661 539169599 992807934</internalNodes>
          <leafValues>
            -5.3228110074996948e-01 4.6726006269454956e-01</leafValues></_>
        <_>
          <internalNodes>
            0 -1 43 -1418532986 -1291106283 675321948 -1432944634
            -502537225 2139127944 -75108972 -853546310</internalNodes>
          <leafValues>
            -5.6580984592437744e-01 4.5269986987113953e-01</leafValues></_></weakClassifiers></_>
    <!-- stage 13 -->
    <_>
      <maxWeakCount>7</maxWeakCount>
      <stageThreshold>-5.5186975002288818e-01</stageThreshold>
      <weakClassifiers>
        <_>
          <internalNodes>
            0 -1 96 -201654417 1936842290 -469807145 780136447
            2147438589 637361663 535776501 -1074307954</internalNodes>
          <leafValues>
            -4.1655358672142029e-01 5.3342068195343018e-01</leafValues></_>
        <_>
          <internalNodes>
            0 -1 58 -850678256 -311033905 -1083711713 -27943137
            -1919067907 -285229057 -973287921 -69472350</internalNodes>
          <leafValues>
            -4.0385806560516357e-01 5.5122041702270508e-01</leafValues></_>
        <_>
          <internalNodes>
            0 -1 77 37804246 271616919 -889085743 -1646097658 1694779667
            -1433894271 539852884 -637100189</internalNodes>
          <leafValues>
            -5.9059607982635498e-01 3.7593692541122437e-01</leafValues></_>
        <_>
          <internalNodes>
            0 -1 29 -575804673 -222250719 1090752786 1896405254
            -1568483039 -1040023022 -2004426109 1310376329</internalNodes>
          <leafValues>
            -4.4953221082687378e-01 5.1437288522720337e-01</leafValues></_>
        <_>
          <internalNodes>
            0 -1 76 28398051 -473185469 318783743 1561432179 91339467
            -1449490239 1753408436 2145370004</internalNodes>
          <leafValues>
            -5.2078026533126831e-01 4.7880440950393677e-01</leafValues></_>
        <_>
          <internalNodes>
            0 -1 62 -974326467 -1094746359 1979645805 -1367998594
            -822106145 1878978493 -855851779 -805339373</internalNodes>
          <leafValues>
            -4.2127487063407898e-01 6.2681621313095093e-01</leafValues></_>
        <_>
          <internalNodes>
            0 -1 112 -2088278639 354045975 -1071575025 -946257846
            1213354120 -1711046653 -1308120960 1267781661</internalNodes>
          <leafValues>
            -6.2968719005584717e-01 4.2962089180946350e-01</leafValues></_></weakClassifiers></_>
    <!-- stage 14 -->
    <_>
      <maxWeakCount>7</maxWeakCount>
      <stageThreshold>-8.1665873527526855e-01</stageThreshold>
      <weakClassifiers>
        <_>
          <internalNodes>
            0 -1 143 -1601155614 -320427452 -989822192 1367842946
            -2130206168 -1608351616 -1202926941 -71048999</internalNodes>
          <leafValues>
            -6.1904764175415039e-01 4.1365462541580200e-01</leafValues></_>
        <_>
          <internalNodes>
            0 -1 14 1381210285 1157976195 268805239 -16183296 134846553
            33593363 1318619385 1570564809</internalNodes>
          <leafValues>
            -5.4031354188919067e-01 4.3249961733818054e-01</leafValues></_>
        <_>
          <internalNodes>
            0 -1 56 -405077703 -1601803655 1152471384 124331040
            -509398581 -1339958429 -1064576205 -1040651061</internalNodes>
          <leafValues>
            -5.2687269449234009e-01 4.5067748427391052e-01</leafValues></_>
        <_>
          <internalNodes>
            0 -1 40 -1052131193 -1822325475 1883259685 -285169525
            1082988763 1057525762 -1080030998 914441913</internalNodes>
          <leafValues>
            -5.0538295507431030e-01 4.8233255743980408e-01</leafValues></_>
        <_>
          <internalNodes>
            0 -1 49 277619545 -1377033984 -1627360630 610375295
            -1815437060 1951172760 1451840179 -203587004</internalNodes>
          <leafValues>
            -4.9331167340278625e-01 4.8088589310646057e-01</leafValues></_>
        <_>
          <internalNodes>
            0 -1 78 -1877384204 -1525635051 419454211 -15383296
            -2130595272 -2043509760 38312016 -605894509</internalNodes>
          <leafValues>
            -5.2173393964767456e-01 4.8374822735786438e-01</leafValues></_>
        <_>
          <internalNodes>
            0 -1 12 1598444329 -1841294446 1107296350 -1836489704
            1082655489 152567844 -670840665 -256961835</internalNodes>
          <leafValues>
            -5.6722623109817505e-01 4.5972803235054016e-01</leafValues></_></weakClassifiers></_>
    <!-- stage 15 -->
    <_>
      <maxWeakCount>7</maxWeakCount>
      <stageThreshold>-6.3676446676254272e-01</stageThreshold>
      <weakClassifiers>
        <_>
          <internalNodes>
            0 -1 101 1343410651 -792883120 -788459082 -262909889
            -1322543644 33589257 -2146785122 -1164934528</internalNodes>
          <leafValues>
            -5.1359999179840088e-01 4.8114284873008728e-01</leafValues></_>
        <_>
          <internalNodes>
            0 -1 133 -1889472681 -665173501 -1878638274 -575409725
            293603712 -1599888478 551573030 719841186</internalNodes>
          <leafValues>
            -5.0062334537506104e-01 4.4561579823493958e-01</leafValues></_>
        <_>
          <internalNodes>
            0 -1 156 1402427735 815809158 335549077 1880524802
            -1039494903 -75460458 -1008928995 1710144386</internalNodes>
          <leafValues>
            -5.3702908754348755e-01 4.4180190563201904e-01</leafValues></_>
        <_>
          <internalNodes>
            0 -1 70 1721619341 1133089540 1348038751 -584903911
            1350932663 -1340005354 -993975217 89344547</internalNodes>
          <leafValues>
            -5.0675678253173828e-01 5.1267039775848389e-01</leafValues></_>
        <_>
          <internalNodes>
            0 -1 69 109891560 -57978808 460062 2044592648 -2146394986
            -1609564142 381176010 -1611675489</internalNodes>
          <leafValues>
            -5.7285803556442261e-01 4.3069511651992798e-01</leafValues></_>
        <_>
          <internalNodes>
            0 -1 99 -75714573 -285274124 1879013109 -1073926468
            1061666529 -816273554 -436797697 -453580831</internalNodes>
          <leafValues>
            -4.8365846276283264e-01 5.2175188064575195e-01</leafValues></_>
        <_>
          <internalNodes>
            0 -1 42 -2123451593 1609547500 -1073758338 2108194614
            -1905631261 1323208667 526364666 -557588794</internalNodes>
          <leafValues>
            -4.5271918177604675e-01 5.5320167541503906e-01</leafValues></_></weakClassifiers></_>
    <!-- stage 16 -->
    <_>
      <maxWeakCount>7</maxWeakCount>
      <stageThreshold>-6.4043325185775757e-01</stageThreshold>
      <weakClassifiers>
        <_>
          <internalNodes>
            0 -1 108 -503034328 -250469333 499125273 -1871535741
            -866028665 -1258118908 75925641 -1578623719</internalNodes>
          <leafValues>
            -6.0000002384185791e-01 3.9502486586570740e-01</leafValues></_>
        <_>
          <internalNodes>
            0 -1 23 192609085 -473067389 -586135201 -376068025
            -183991899 588022186 -1987272636 -1445286197</internalNodes>
          <leafValues>
            -5.0033438205718994e-01 4.2774584889411926e-01</leafValues></_>
        <_>
          <internalNodes>
            0 -1 31 1353421625 -1212609 804171301 1945490790 2130155247
            -71958537 536833981 -1146491237</internalNodes>
          <leafValues>
            -3.3247077465057373e-01 6.8497598171234131e-01</leafValues></_>
        <_>
          <internalNodes>
            0 -1 164 -1684801921 -406897107 -84493466 -696267010
            150296356 1181117819 -964690049 -1016078980</internalNodes>
          <leafValues>
            -4.3529391288757324e-01 5.3010374307632446e-01</leafValues></_>
        <_>
          <internalNodes>
            0 -1 13 -92303617 -21629209 -1069209 -1090539585 -1212717733
            -182283780 -302116941 -184472372</internalNodes>
          <leafValues>
            -4.2083820700645447e-01 5.7826495170593262e-01</leafValues></_>
        <_>
          <internalNodes>
            0 -1 137 -700323378 12967950 268468677 806602839 -783089400
            -1329418213 -1354652978 164624303</internalNodes>
          <leafValues>
            -6.6325670480728149e-01 3.7708547711372375e-01</leafValues></_>
        <_>
          <internalNodes>
            0 -1 65 -134012813 1654460473 -2147483497 40912051
            -687181614 -635823976 -762537943 2034635706</internalNodes>
          <leafValues>
            -5.9916383028030396e-01 4.4146904349327087e-01</leafValues></_></weakClassifiers></_>
    <!-- stage 17 -->
    <_>
      <maxWeakCount>6</maxWeakCount>
      <stageThreshold>-1.0720868110656738e+00</stageThreshold>
      <weakClassifiers>
        <_>
          <internalNodes>
            0 -1 131 -1850517009 -510532649 -1856892528 819597396
            -629083891 -1063141310 -1988046448 -1282899740</internalNodes>
          <leafValues>
            -5.2397263050079346e-01 4.4323143362998962e-01</leafValues></_>
        <_>
          <internalNodes>
            0 -1 66 -1730945129 -717726065 -214294741 -551362881
            -1279533609 1462787469 -1074569261 -88357470</internalNodes>
          <leafValues>
            -4.2235836386680603e-01 5.4606348276138306e-01</leafValues></_>
        <_>
          <internalNodes>
            0 -1 159 -545327911 -239206913 -822126737 -1635779091
            2113470047 -337314306 2139027119 2139013119</internalNodes>
          <leafValues>
            -4.2657372355461121e-01 5.8437395095825195e-01</leafValues></_>
        <_>
          <internalNodes>
            0 -1 50 -880593064 422957173 -1248028266 -364867024
            -750870354 -1858239944 335989472 2061734551</internalNodes>
          <leafValues>
            -4.7472068667411804e-01 4.7190606594085693e-01</leafValues></_>
        <_>
          <internalNodes>
            0 -1 124 -1790094429 2121486865 -788426285 280904975
            -1332637760 -806088310 1646112963 1350929074</internalNodes>
          <leafValues>
            -5.4702895879745483e-01 4.2351987957954407e-01</leafValues></_>
        <_>
          <internalNodes>
            0 -1 18 1269473046 1480873366 -651591302 1066008578 34976362
            1043344433 1013156376 1982458434</internalNodes>
          <leafValues>
            -6.5680199861526489e-01 3.9729267358779907e-01</leafValues></_></weakClassifiers></_>
    <!-- stage 18 -->
    <_>
      <maxWeakCount>7</maxWeakCount>
      <stageThreshold>-5.9380811452865601e-01</stageThreshold>
      <weakClassifiers>
        <_>
          <internalNodes>
            0 -1 4 2004025339 2129657787 -268484877 -277889281
            2104623061 2147450743 1920069502 1564597311</internalNodes>
          <leafValues>
            -3.9466667175292969e-01 5.2799999713897705e-01</leafValues></_>
        <_>
          <internalNodes>
            0 -1 122 -1684365357 1892745233 -1610018371 -1598701423
            -108091717 -1853709726 831031227 191740824</internalNodes>
          <leafValues>
            -5.0540989637374878e-01 4.5385754108428955e-01</leafValues></_>
        <_>
          <internalNodes>
            0 -1 25 -664412160 1481643093 889885988 -272400250
            1153501872 2024276169 -476078075 -84363632</internalNodes>
          <leafValues>
            -5.9249544143676758e-01 3.9502000808715820e-01</leafValues></_>
        <_>
          <internalNodes>
            0 -1 154 2078080333 897056579 -1141063684 784199663
            2011570053 -15893177 -1468011304 -1966301714</internalNodes>
          <leafValues>
            -3.9225754141807556e-01 5.9528809785842896e-01</leafValues></_>
        <_>
          <internalNodes>
            0 -1 83 1601227739 -1686011567 268682003 -988494271
            -1593585495 -905101280 -2093786870 141097832</internalNodes>
          <leafValues>
            -5.8890390396118164e-01 4.2500707507133484e-01</leafValues></_>
        <_>
          <internalNodes>
            0 -1 91 -712553471 -1794289597 131218 1970393247 -1501525258
            -1265489536 -424664416 -1282023392</internalNodes>
          <leafValues>
            -5.8598494529724121e-01 4.2789974808692932e-01</leafValues></_>
        <_>
          <internalNodes>
            0 -1 55 -293617831 -1078149250 -8602055 -1884491921 -16588
            670544892 -184481 -942200733</internalNodes>
          <leafValues>
            -4.2990848422050476e-01 6.0108441114425659e-01</leafValues></_></weakClassifiers></_>
    <!-- stage 19 -->
    <_>
      <maxWeakCount>7</maxWeakCount>
      <stageThreshold>-5.6479954719543457e-01</stageThreshold>
      <weakClassifiers>
        <_>
          <internalNodes>
            0 -1 106 -746197163 -1072480127 268439075 -799997440
            -1218356981 -812218039 -1571794425 -97345870</internalNodes>
          <leafValues>
            -5.0000000000000000e-01 4.3612334132194519e-01</leafValues></_>
        <_>
          <internalNodes>
            0 -1 144 -1476552083 -248774725 -17109018 -185925644
            -809799361 -243400826 -100671845 -1293159597</internalNodes>
          <leafValues>
            -3.9928981661796570e-01 5.4367262125015259e-01</leafValues></_>
        <_>
          <internalNodes>
            0 -1 33 1941792767 853929916 2147478603 -38866962 263374298
            220732773 -1342234865 1068684807</internalNodes>
          <leafValues>
            -4.6045395731925964e-01 4.8617580533027649e-01</leafValues></_>
        <_>
          <internalNodes>
            0 -1 74 -1060335745 -1199535610 -721154394 -2053863846
            -1694240747 -661626703 -1417502919 -1074722089</internalNodes>
          <leafValues>
            -4.3520113825798035e-01 4.9400439858436584e-01</leafValues></_>
        <_>
          <internalNodes>
            0 -1 161 -562049649 1442606263 2130210814 427783668
            -1073816107 -805306371 -2368011 1600097525</internalNodes>
          <leafValues>
            -4.6978574991226196e-01 5.5412262678146362e-01</leafValues></_>
        <_>
          <internalNodes>
            0 -1 61 4273480 -1020511732 1359073489 -2097553211
            1125127083 1131421803 -1429814176 1987484226</internalNodes>
          <leafValues>
            -6.8924444913864136e-01 3.6378714442253113e-01</leafValues></_>
        <_>
          <internalNodes>
            0 -1 113 2145811929 -156614929 1591738171 1450425847
            1342141992 -1627389970 -818479393 1541070324</internalNodes>
          <leafValues>
            -4.8932307958602905e-01 5.1334029436111450e-01</leafValues></_></weakClassifiers></_>
    <!-- stage 20 -->
    <_>
      <maxWeakCount>7</maxWeakCount>
      <stageThreshold>-7.2577553987503052e-01</stageThreshold>
      <weakClassifiers>
        <_>
          <internalNodes>
            0 -1 134 -1726416703 -2092203520 260112961 -603483312
            1092780306 -1425735295 -1961491598 2075066028</internalNodes>
          <leafValues>
            -5.2857142686843872e-01 4.2127659916877747e-01</leafValues></_>
        <_>
          <internalNodes>
            0 -1 47 1978529079 -268435465 -272630666 -5574752
            -1220946507 -1163167746 -1073792868 -34127985</internalNodes>
          <leafValues>
            -4.0029051899909973e-01 5.3134638071060181e-01</leafValues></_>
        <_>
          <internalNodes>
            0 -1 1 -300644447 -1835540219 805769489 -1468690385
            1094811660 -1564475388 555831970 -362439857</internalNodes>
          <leafValues>
            -4.9799725413322449e-01 4.3086165189743042e-01</leafValues></_>
        <_>
          <internalNodes>
            0 -1 151 1037373538 -194155530 -9089 -1074007302 -1489000452
            2137871160 652013624 -58724102</internalNodes>
          <leafValues>
            -4.3514350056648254e-01 5.2733123302459717e-01</leafValues></_>
        <_>
          <internalNodes>
            0 -1 102 1625601319 2046783217 -553693185 1303347189
            -1208354887 -21009414 -1083318595 -1318453273</internalNodes>
          <leafValues>
            -4.6871778368949890e-01 5.7408970594406128e-01</leafValues></_>
        <_>
          <internalNodes>
            0 -1 109 446126224 -1048557568 -2008374905 -696250166
            1124113516 -117406520 -2097052780 -1211438116</internalNodes>
          <leafValues>
            -6.2429767847061157e-01 4.0431359410285950e-01</leafValues></_>
        <_>
          <internalNodes>
            0 -1 5 287348128 1884504460 1946222989 385908967 -694088934
            604082478 819053267 106895760</internalNodes>
          <leafValues>
            -6.5986448526382446e-01 3.9664953947067261e-01</leafValues></_></weakClassifiers></_>
    <!-- stage 21 -->
    <_>
      <maxWeakCount>7</maxWeakCount>
      <stageThreshold>-7.9181510210037231e-01</stageThreshold>
      <weakClassifiers>
        <_>
          <internalNodes>
            0 -1 135 -36727085 -972971499 2013331738 -58358955 547459374
            -109047543 948019363 736004765</internalNodes>
          <leafValues>
            -4.8805460333824158e-01 4.2231947183609009e-01</leafValues></_>
        <_>
          <internalNodes>
            0 -1 30 1497797299 -1694088064 67115282 28365597 -804807732
            -863462079 480339887 767929893</internalNodes>
          <leafValues>
            -5.1489698886871338e-01 4.0891203284263611e-01</leafValues></_>
        <_>
          <internalNodes>
            0 -1 90 -276909233 -703164387 -1071572851 -414053859
            1654823486 1510474049 -2134502390 -165186499</internalNodes>
          <leafValues>
            -4.8746293783187866e-01 4.6305397152900696e-01</leafValues></_>
        <_>
          <internalNodes>
            0 -1 38 -103801561 -1676578790 -1056846770 -717406075
            -251327202 285769756 -2012419958 782917347</internalNodes>
          <leafValues>
            -4.6973234415054321e-01 4.7205963730812073e-01</leafValues></_>
        <_>
          <internalNodes>
            0 -1 59 -1520240793 -1895850195 -1073774601 2143190964
            -1074070081 1315307518 1052405138 -539626508</internalNodes>
          <leafValues>
            -4.6088725328445435e-01 5.1193690299987793e-01</leafValues></_>
        <_>
          <internalNodes>
            0 -1 20 -883396255 295047441 -1886271010 -287137591
            -450553071 321572996 -1983327467 -534732249</internalNodes>
          <leafValues>
            -6.0563981533050537e-01 4.0766549110412598e-01</leafValues></_>
        <_>
          <internalNodes>
            0 -1 75 143338383 989859984 -947867010 -1040105457
            -1040154516 -745495928 1241596415 2096088044</internalNodes>
          <leafValues>
            -5.7214850187301636e-01 4.3472892045974731e-01</leafValues></_></weakClassifiers></_>
    <!-- stage 22 -->
    <_>
      <maxWeakCount>7</maxWeakCount>
      <stageThreshold>-7.3001807928085327e-01</stageThreshold>
      <weakClassifiers>
        <_>
          <internalNodes>
            0 -1 140 -1223490520 -473734710 -1870217083 -94584764
            -1060943704 -369555432 -1333778212 -550793597</internalNodes>
          <leafValues>
            -5.8649790287017822e-01 3.6842104792594910e-01</leafValues></_>
        <_>
          <internalNodes>
            0 -1 22 -507837961 -1184760025 -1107312978 -281 -868950033
            -1675330252 -1640001710 1957462463</internalNodes>
          <leafValues>
            -4.1657218337059021e-01 4.8798206448554993e-01</leafValues></_>
        <_>
          <internalNodes>
            0 -1 51 -664818048 1892897089 354898200 80380482 -1855109827
            973488257 -123162872 -1431307862</internalNodes>
          <leafValues>
            -5.3031569719314575e-01 4.1799798607826233e-01</leafValues></_>
        <_>
          <internalNodes>
            0 -1 145 319490154 -384987136 -1878636456 -740594472
            1141080282 -494632765 1226399746 1498728003</internalNodes>
          <leafValues>
            -6.1085540056228638e-01 3.9273291826248169e-01</leafValues></_>
        <_>
          <internalNodes>
            0 -1 111 -1954082348 1409663105 -2012146525 -1682472507
            -1019106641 -1315569535 1912957718 449182383</internalNodes>
          <leafValues>
            -5.4797381162643433e-01 4.0478646755218506e-01</leafValues></_>
        <_>
          <internalNodes>
            0 -1 8 2011660287 -349650969 1073721192 -67178822
            -1611171919 -839208978 234400021 -324051075</internalNodes>
          <leafValues>
            -4.0734577178955078e-01 6.2382376194000244e-01</leafValues></_>
        <_>
          <internalNodes>
            0 -1 158 -43451481 -1310937305 -268533762 805170943 -9056140
            821982293 376862700 1593219245</internalNodes>
          <leafValues>
            -4.3824416399002075e-01 5.5548816919326782e-01</leafValues></_></weakClassifiers></_>
    <!-- stage 23 -->
    <_>
      <maxWeakCount>7</maxWeakCount>
      <stageThreshold>-5.7813572883605957e-01</stageThreshold>
      <weakClassifiers>
        <_>
          <internalNodes>
            0 -1 88 -67240577 1542125567 -16790033 -11644965 -570493618
            -348199041 -1627398242 -1621369601</internalNodes>
          <leafValues>
            -2.4923703074455261e-01 6.6731142997741699e-01</leafValues></_>
        <_>
          <internalNodes>
            0 -1 15 2138273727 -1619279941 2122316735 2070011903
            997588822 -8978570 909928180 -77941250</internalNodes>
          <leafValues>
            -3.3746993541717529e-01 5.7337111234664917e-01</leafValues></_>
        <_>
          <internalNodes>
            0 -1 34 838312813 -1563257422 982520233 -1450737466
            -1473944909 -2066935164 -2129181731 -1528371738</internalNodes>
          <leafValues>
            -5.1512253284454346e-01 4.1889482736587524e-01</leafValues></_>
        <_>
          <internalNodes>
            0 -1 95 -1873764513 1640546887 302022771 533725649
            -1860917319 -1032938984 1147355855 2131290361</internalNodes>
          <leafValues>
            -5.1734423637390137e-01 4.0292656421661377e-01</leafValues></_>
        <_>
          <internalNodes>
            0 -1 39 1695263437 -1848446943 155271460 -1922758474
            2062385691 1908572737 -175591164 496960296</internalNodes>
          <leafValues>
            -5.3339958190917969e-01 4.1828626394271851e-01</leafValues></_>
        <_>
          <internalNodes>
            0 -1 6 332990246 -692005746 290341277 380616977 -1962717175
            -1618999546 587453105 1676417158</internalNodes>
          <leafValues>
            -5.9977662563323975e-01 4.0007990598678589e-01</leafValues></_>
        <_>
          <internalNodes>
            0 -1 44 -1965155467 -1017364399 -1072675570 -813100519
            1700372992 -567377595 537307340 399405240</internalNodes>
          <leafValues>
            -6.5675419569015503e-01 3.6696261167526245e-01</leafValues></_></weakClassifiers></_>
    <!-- stage 24 -->
    <_>
      <maxWeakCount>7</maxWeakCount>
      <stageThreshold>-5.0583899021148682e-01</stageThreshold>
      <weakClassifiers>
        <_>
          <internalNodes>
            0 -1 11 -1342726183 -571409451 -16777289 -856146 234309590
            -1074643011 2147483184 -1141538917</internalNodes>
          <leafValues>
            -2.8277355432510376e-01 6.2564992904663086e-01</leafValues></_>
        <_>
          <internalNodes>
            0 -1 141 -1084458625 -573824681 -1560136494 1375183002
            -1735495301 -29236078 411145189 1271411853</internalNodes>
          <leafValues>
            -4.5119941234588623e-01 4.4977608323097229e-01</leafValues></_>
        <_>
          <internalNodes>
            0 -1 153 1724870613 -134409707 -151193730 1608283997
            -555287315 1062148667 -1225279501 -359472130</internalNodes>
          <leafValues>
            -4.1315332055091858e-01 4.9988904595375061e-01</leafValues></_>
        <_>
          <internalNodes>
            0 -1 0 374549997 451478543 1409360853 -1811704578
            -1248323611 -2145124325 -1818685011 687159562</internalNodes>
          <leafValues>
            -5.3408026695251465e-01 4.0384176373481750e-01</leafValues></_>
        <_>
          <internalNodes>
            0 -1 97 -878452385 -750419835 1493207303 2114951940
            -1832843255 290015240 -1064423415 855324888</internalNodes>
          <leafValues>
            -4.9837735295295715e-01 4.5509845018386841e-01</leafValues></_>
        <_>
          <internalNodes>
            0 -1 10 69657628 -1721499424 285470564 298922001 -260977616
            235721245 -618952183 926709545</internalNodes>
          <leafValues>
            -5.9730446338653564e-01 3.7256845831871033e-01</leafValues></_>
        <_>
          <internalNodes>
            0 -1 157 -901549349 1980043410 184632051 1485244482
            -452295994 1267794080 1050739334 -220014036</internalNodes>
          <leafValues>
            -4.7627162933349609e-01 4.8978862166404724e-01</leafValues></_></weakClassifiers></_>
    <!-- stage 25 -->
    <_>
      <maxWeakCount>6</maxWeakCount>
      <stageThreshold>-6.5439015626907349e-01</stageThreshold>
      <weakClassifiers>
        <_>
          <internalNodes>
            0 -1 60 84623095 -1216565377 1995894287 -1741410325
            -856826658 -33567747 -566419987 -1361074373</internalNodes>
          <leafValues>
            -3.2533013820648193e-01 5.5622190237045288e-01</leafValues></_>
        <_>
          <internalNodes>
            0 -1 152 -1150026561 -2180 -16779281 1586331212 -8456481
            -675317923 1476352703 1400782335</internalNodes>
          <leafValues>
            -3.9010918140411377e-01 4.9583494663238525e-01</leafValues></_>
        <_>
          <internalNodes>
            0 -1 28 -557844913 -1628438725 2147417839 -218169901
            2088710085 1717043007 -1073741898 -291515011</internalNodes>
          <leafValues>
            -3.4004044532775879e-01 6.1521905660629272e-01</leafValues></_>
        <_>
          <internalNodes>
            0 -1 21 2138910519 -1140982093 -1073791239 -1091721220
            -1250099379 792001862 -704971269 -1074759974</internalNodes>
          <leafValues>
            -4.3618217110633850e-01 5.2595537900924683e-01</leafValues></_>
        <_>
          <internalNodes>
            0 -1 82 -1592359505 -545996725 -2130690048 -585447913
            -1071394079 698081803 -649424552 -905281463</internalNodes>
          <leafValues>
            -4.8233306407928467e-01 4.8087564110755920e-01</leafValues></_>
        <_>
          <internalNodes>
            0 -1 123 1342267723 378687559 -1073658867 -347192934
            -805110993 -1589280318 807412242 520085191</internalNodes>
          <leafValues>
            -5.2408468723297119e-01 4.5850482583045959e-01</leafValues></_></weakClassifiers></_>
    <!-- stage 26 -->
    <_>
      <maxWeakCount>7</maxWeakCount>
      <stageThreshold>-5.5445510149002075e-01</stageThreshold>
      <weakClassifiers>
        <_>
          <internalNodes>
            0 -1 68 1396694356 1903951094 -1342243154 800992990
            366866419 929112063 1425956170 -110885</internalNodes>
          <leafValues>
            -4.2982456088066101e-01 4.8284313082695007e-01</leafValues></_>
        <_>
          <internalNodes>
            0 -1 36 -1359036894 980860878 -1069251 -26296537 -587252601
            -50430089 -990106138 267908731</internalNodes>
          <leafValues>
            -4.4448995590209961e-01 4.8392766714096069e-01</leafValues></_>
        <_>
          <internalNodes>
            0 -1 162 -12652809 1197731069 -285329419 -260653841
            -1381010619 122142711 -419971589 -683762248</internalNodes>
          <leafValues>
            -3.7770098447799683e-01 5.9225255250930786e-01</leafValues></_>
        <_>
          <internalNodes>
            0 -1 147 1373631455 -245480757 1409630600 2068025497
            85861442 -2004336114 1426753967 668659961</internalNodes>
          <leafValues>
            -5.2555108070373535e-01 4.7298562526702881e-01</leafValues></_>
        <_>
          <internalNodes>
            0 -1 24 665867245 1957883774 2142994311 -574951510 922017658
            -1448078089 -1082671141 -323893312</internalNodes>
          <leafValues>
            -4.4318655133247375e-01 5.4685854911804199e-01</leafValues></_>
        <_>
          <internalNodes>
            0 -1 121 468137469 77464385 67174490 1233846340 520130721
            -124761966 1376484227 512006827</internalNodes>
          <leafValues>
            -6.3756787776947021e-01 3.7957116961479187e-01</leafValues></_>
        <_>
          <internalNodes>
            0 -1 149 2003458261 -637319785 -2147401109 823607627
            -1870591582 -104824703 -2101340415 -1491465582</internalNodes>
          <leafValues>
            -5.5435848236083984e-01 4.5761874318122864e-01</leafValues></_></weakClassifiers></_></stages>
  <features>
    <_>
      <rect>
        0 4 15 13</rect></_>
    <_>
      <rect>
        0 16 5 6</rect></_>
    <_>
      <rect>
        0 28 15 6</rect></_>
    <_>
      <rect>
        1 0 10 7</rect></_>
    <_>
      <rect>
        1 5 6 13</rect></_>
    <_>
      <rect>
        1 7 12 13</rect></_>
    <_>
      <rect>
        1 12 12 10</rect></_>
    <_>
      <rect>
        1 14 5 7</rect></_>
    <_>
      <rect>
        2 13 13 7</rect></_>
    <_>
      <rect>
        3 3 11 5</rect></_>
    <_>
      <rect>
        3 6 12 10</rect></_>
    <_>
      <rect>
        3 18 7 2</rect></_>
    <_>
      <rect>
        3 23 6 7</rect></_>
    <_>
      <rect>
        4 0 13 13</rect></_>
    <_>
      <rect>
        4 6 13 3</rect></_>
    <_>
      <rect>
        4 14 4 6</rect></_>
    <_>
      <rect>
        4 16 5 3</rect></_>
    <_>
      <rect>
        4 25 6 7</rect></_>
    <_>
      <rect>
        5 18 6 4</rect></_>
    <_>
      <rect>
        6 5 7 12</rect></_>
    <_>
      <rect>
        6 12 10 7</rect></_>
    <_>
      <rect>
        6 29 4 2</rect></_>
    <_>
      <rect>
        7 2 10 12</rect></_>
    <_>
      <rect>
        7 8 9 9</rect></_>
    <_>
      <rect>
        7 9 13 7</rect></_>
    <_>
      <rect>
        7 24 10 5</rect></_>
    <_>
      <rect>
        8 4 8 11</rect></_>
    <_>
      <rect>
        8 9 9 9</rect></_>
    <_>
      <rect>
        8 12 2 3</rect></_>
    <_>
      <rect>
        8 15 2 4</rect></_>
    <_>
      <rect>
        8 27 12 7</rect></_>
    <_>
      <rect>
        8 28 8 4</rect></_>
    <_>
      <rect>
        9 2 11 11</rect></_>
    <_>
      <rect>
        9 4 10 10</rect></_>
    <_>
      <rect>
        9 9 8 9</rect></_>
    <_>
      <rect>
        9 10 8 8</rect></_>
    <_>
      <rect>
        9 11 10 9</rect></_>
    <_>
      <rect>
        9 12 10 8</rect></_>
    <_>
      <rect>
        9 29 3 3</rect></_>
    <_>
      <rect>
        10 2 11 11</rect></_>
    <_>
      <rect>
        10 10 11 8</rect></_>
    <_>
      <rect>
        10 11 7 9</rect></_>
    <_>
      <rect>
        10 13 3 4</rect></_>
    <_>
      <rect>
        10 18 5 4</rect></_>
    <_>
      <rect>
        10 30 3 3</rect></_>
    <_>
      <rect>
        10 30 11 6</rect></_>
    <_>
      <rect>
        11 6 8 9</rect></_>
    <_>
      <rect>
        11 7 7 7</rect></_>
    <_>
      <rect>
        11 7 8 7</rect></_>
    <_>
      <rect>
        11 13 9 6</rect></_>
    <_>
      <rect>
        11 14 10 7</rect></_>
    <_>
      <rect>
        11 25 4 4</rect></_>
    <_>
      <rect>
        12 8 7 7</rect></_>
    <_>
      <rect>
        12 9 8 2</rect></_>
    <_>
      <rect>
        12 9 8 9</rect></_>
    <_>
      <rect>
        12 10 4 5</rect></_>
    <_>
      <rect>
        12 10 7 9</rect></_>
    <_>
      <rect>
        12 11 9 8</rect></_>
    <_>
      <rect>
        12 12 9 8</rect></_>
    <_>
      <rect>
        12 13 2 4</rect></_>
    <_>
      <rect>
        12 13 10 6</rect></_>
    <_>
      <rect>
        12 17 8 5</rect></_>
    <_>
      <rect>
        12 20 4 5</rect></_>
    <_>
      <rect>
        12 30 8 6</rect></_>
    <_>
      <rect>
        12 32 3 3</rect></_>
    <_>
      <rect>
        12 32 4 3</rect></_>
    <_>
      <rect>
        13 4 9 10</rect></_>
    <_>
      <rect>
        13 7 8 11</rect></_>
    <_>
      <rect>
        13 8 6 8</rect></_>
    <_>
      <rect>
        13 8 9 4</rect></_>
    <_>
      <rect>
        13 9 7 11</rect></_>
    <_>
      <rect>
        13 10 8 10</rect></_>
    <_>
      <rect>
        13 12 8 8</rect></_>
    <_>
      <rect>
        13 16 6 3</rect></_>
    <_>
      <rect>
        13 26 5 4</rect></_>
    <_>
      <rect>
        13 33 3 2</rect></_>
    <_>
      <rect>
        14 8 2 2</rect></_>
    <_>
      <rect>
        14 9 7 6</rect></_>
    <_>
      <rect>
        14 11 5 2</rect></_>
    <_>
      <rect>
        14 12 7 5</rect></_>
    <_>
      <rect>
        14 31 11 5</rect></_>
    <_>
      <rect>
        14 34 3 2</rect></_>
    <_>
      <rect>
        15 0 6 5</rect></_>
    <_>
      <rect>
        15 0 9 5</rect></_>
    <_>
      <rect>
        15 10 5 6</rect></_>
    <_>
      <rect>
        15 13 7 9</rect></_>
    <_>
      <rect>
        15 20 6 2</rect></_>
    <_>
      <rect>
        16 2 6 6</rect></_>
    <_>
      <rect>
        16 3 5 4</rect></_>
    <_>
      <rect>
        16 7 4 7</rect></_>
    <_>
      <rect>
        16 9 7 10</rect></_>
    <_>
      <rect>
        16 12 4 5</rect></_>
    <_>
      <rect>
        16 13 7 4</rect></_>
    <_>
      <rect>
        16 18 4 2</rect></_>
    <_>
      <rect>
        17 0 6 5</rect></_>
    <_>
      <rect>
        17 7 4 2</rect></_>
    <_>
      <rect>
        17 9 4 7</rect></_>
    <_>
      <rect>
        17 11 4 5</rect></_>
    <_>
      <rect>
        17 14 7 5</rect></_>
    <_>
      <rect>
        17 18 5 4</rect></_>
    <_>
      <rect>
        17 20 5 2</rect></_>
    <_>
      <rect>
        17 21 5 1</rect></_>
    <_>
      <rect>
        18 9 4 3</rect></_>
    <_>
      <rect>
        18 9 4 5</rect></_>
    <_>
      <rect>
        18 18 2 3</rect></_>
    <_>
      <rect>
        18 18 3 2</rect></_>
    <_>
      <rect>
        18 19 4 3</rect></_>
    <_>
      <rect>
        18 20 4 2</rect></_>
    <_>
      <rect>
        19 11 5 5</rect></_>
    <_>
      <rect>
        19 18 2 2</rect></_>
    <_>
      <rect>
        19 18 3 2</rect></_>
    <_>
      <rect>
        19 30 7 5</rect></_>
    <_>
      <rect>
        20 5 2 3</rect></_>
    <_>
      <rect>
        20 7 4 2</rect></_>
    <_>
      <rect>
        20 15 2 3</rect></_>
    <_>
      <rect>
        20 19 1 2</rect></_>
    <_>
      <rect>
        20 20 1 1</rect></_>
    <_>
      <rect>
        20 20 2 2</rect></_>
    <_>
      <rect>
        20 20 3 2</rect></_>
    <_>
      <rect>
        20 21 1 1</rect></_>
    <_>
      <rect>
        20 21 3 1</rect></_>
    <_>
      <rect>
        20 22 1 1</rect></_>
    <_>
      <rect>
        20 23 1 1</rect></_>
    <_>
      <rect>
        20 29 7 5</rect></_>
    <_>
      <rect>
        20 35 5 2</rect></_>
    <_>
      <rect>
        21 1 7 6</rect></_>
    <_>
      <rect>
        21 13 2 4</rect></_>
    <_>
      <rect>
        21 19 2 2</rect></_>
    <_>
      <rect>
        21 20 1 1</rect></_>
    <_>
      <rect>
        21 20 2 2</rect></_>
    <_>
      <rect>
        21 21 1 1</rect></_>
    <_>
      <rect>
        21 21 2 1</rect></_>
    <_>
      <rect>
        21 22 1 1</rect></_>
    <_>
      <rect>
        21 29 7 5</rect></_>
    <_>
      <rect>
        22 18 1 1</rect></_>
    <_>
      <rect>
        22 19 1 1</rect></_>
    <_>
      <rect>
        22 19 1 2</rect></_>
    <_>
      <rect>
        22 20 1 1</rect></_>
    <_>
      <rect>
        22 20 2 2</rect></_>
    <_>
      <rect>
        22 21 1 1</rect></_>
    <_>
      <rect>
        22 22 1 1</rect></_>
    <_>
      <rect>
        22 35 3 2</rect></_>
    <_>
      <rect>
        23 20 1 1</rect></_>
    <_>
      <rect>
        23 22 1 1</rect></_>
    <_>
      <rect>
        24 2 8 6</rect></_>
    <_>
      <rect>
        24 20 1 1</rect></_>
    <_>
      <rect>
        24 21 1 1</rect></_>
    <_>
      <rect>
        25 6 2 2</rect></_>
    <_>
      <rect>
        25 20 5 2</rect></_>
    <_>
      <rect>
        25 22 2 2</rect></_>
    <_>
      <rect>
        26 7 2 2</rect></_>
    <_>
      <rect>
        27 12 5 8</rect></_>
    <_>
      <rect>
        28 9 1 1</rect></_>
    <_>
      <rect>
        29 8 4 8</rect></_>
    <_>
      <rect>
        29 20 5 2</rect></_>
    <_>
      <rect>
        30 9 4 2</rect></_>
    <_>
      <rect>
        30 10 5 5</rect></_>
    <_>
      <rect>
        30 12 6 4</rect></_>
    <_>
      <rect>
        30 17 5 6</rect></_>
    <_>
      <rect>
        31 9 1 1</rect></_>
    <_>
      <rect>
        32 11 5 9</rect></_>
    <_>
      <rect>
        34 10 3 9</rect></_>
    <_>
      <rect>
        35 24 2 3</rect></_>
    <_>
      <rect>
        36 18 2 2</rect></_>
    <_>
      <rect>
        36 23 2 3</rect></_></features></cascade>
</opencv_storage>
